{
  "bestBrain": {
      "levels": [
          {
              "inputs": [
                  0.5058707848375594,
                  0.08696826339111074,
                  0,
                  0,
                  0
              ],
              "outputs": [
                  0,
                  1,
                  1,
                  1,
                  1,
                  0
              ],
              "biases": [
                  0.34198790600760687,
                  -0.5670210825329373,
                  0.23450844633398424,
                  -0.2655332452197983,
                  0.21705945651441172,
                  0.1646845688838771
              ],
              "weights": [
                  [
                      -0.10582309921664002,
                      -0.3365796631591402,
                      0.5954118196209536,
                      -0.21197128341632876,
                      0.35684017458740497,
                      -0.2589867234504361
                  ],
                  [
                      -0.3391551718195044,
                      0.36778972790595216,
                      0.19378040404283547,
                      -0.009027289610377603,
                      0.5605154571864526,
                      -0.27892044306212244
                  ],
                  [
                      -0.13194211423231678,
                      0.4881773686868019,
                      0.4183995124297136,
                      -0.2983402889934331,
                      0.5026869889620074,
                      0.31089967874080704
                  ],
                  [
                      -0.690663050329654,
                      -0.8008511318562055,
                      0.10905735869033548,
                      0.44497107089284493,
                      0.05706525951856449,
                      0.13710943618306815
                  ],
                  [
                      -0.19158470911995748,
                      -0.07299412612336748,
                      -0.6013130267878647,
                      0.35598532613585143,
                      -0.47439812436834433,
                      0.4076017126714511
                  ]
              ]
          },
          {
              "inputs": [
                  0,
                  1,
                  1,
                  1,
                  1,
                  0
              ],
              "outputs": [
                  1,
                  0,
                  0,
                  0
              ],
              "biases": [
                  -0.28732042984284445,
                  0.3477920071578742,
                  0.32167371587632637,
                  0.5644757913730534
              ],
              "weights": [
                  [
                      0.7177068642888071,
                      -0.34953508233328096,
                      -0.1226349500728133,
                      -0.5653959335003284
                  ],
                  [
                      0.5699664382087763,
                      -0.002964484079635482,
                      0.29236448972911805,
                      0.17051006999680285
                  ],
                  [
                      0.3570121361564756,
                      0.21950054809225364,
                      0.3460112975473668,
                      0.0206946549121009
                  ],
                  [
                      -0.2514401035573834,
                      0.24908677914387653,
                      0.06041883001986838,
                      -0.6276351167619525
                  ],
                  [
                      0.20130860186887017,
                      -0.5954509057754136,
                      -0.3892253609695152,
                      -0.306101572478114
                  ],
                  [
                      0.6300149532310605,
                      0.18307465022889968,
                      -0.08364121247859518,
                      -0.12311144167528398
                  ]
              ]
          }
      ]
  }
}
